svm_type C_SVC
kernel_type RBF
gamma 0.5
nr_class 2
total_sv 5
rho -0.200281690527558
label 0 1
nr_sv 3 2
SV
0.799523419629581 1:1 2:-1 3:1 4:1 5:-1 6:1 7:-1 8:1 9:1 10:1 11:1 12:1 13:1 14:1 15:-1 16:1 17:1 18:1 19:-1 20:1 21:1 22:0.321928143501282 23:1 24:-1 25:1 26:1 27:1 28:1 29:-1 30:-1 31:1 32:1 33:1 34:1 35:1 36:1 37:-1 38:1 39:1 40:1 41:1 42:-1 43:1 44:1 45:-1 46:-1 47:1 48:1 49:1
0.799523419629581 1:1 2:-1 3:1 4:1 5:1 6:1 7:1 8:-1 9:1 10:1 11:1 12:1 13:1 14:1 15:0.0529115692248547 16:1 17:1 18:1 19:-1 20:1 21:1 22:0.321928143501282 23:1 24:1 25:1 26:1 27:1 28:1 29:1 30:0.470828857479245 31:1 32:1 33:1 34:1 35:1 36:1 37:1 38:1 39:1 40:1 41:1 42:-1 43:1 44:1 45:-1 46:-1 47:1 48:1 49:1
0.799524375220389 1:-1 2:-1 3:1 4:-1 5:-1 6:-1 7:1 8:-1 9:-1 10:-1 11:-1 12:-1 13:1 14:-1 15:-1 16:-1 17:-1 18:-1 19:-1 20:-1 21:1 22:-1 23:-1 24:1 25:1 26:1 27:1 28:-1 29:-1 30:-1 31:-1 32:1 33:-1 34:-1 35:1 36:-1 37:1 38:-1 39:1 40:1 41:1 42:-1 43:1 44:-1 45:-1 46:-1 47:1 48:-1 49:1
-1.19977072695847 1:-1 2:1 3:-1 4:-1 5:-1 6:-0.0301457869069034 7:0.164127311133269 8:-1 9:-1 10:-0.256348530451457 11:-1 12:0.680438116870514 13:-1 14:0.123048708400786 15:1 16:-0.0948225157831232 17:-1 18:0.631882479172208 19:1 20:-0.189626153937613 21:-1 22:1 23:0.164127311133269 24:-1 25:-1 26:-1 27:-1 28:-1 29:-1 30:-1 31:-1 32:-1 33:0.506839515261201 34:-1 35:-1 36:-1 37:0.0529115692248547 38:-1 39:-1 40:-1 41:-1 42:1 43:-0.189626153937613 44:-1 45:1 46:1 47:-1 48:-1 49:-1
-1.19880048752108 1:-1 2:1 3:-1 4:-1 5:-1 6:-0.0301457869069034 7:-1 8:-1 9:-1 10:-1 11:-1 12:0.680438116870514 13:-0.189626153937613 14:-1 15:1 16:-0.0948225157831232 17:-1 18:0.631882479172208 19:1 20:-1 21:-1 22:1 23:0.164127311133269 24:-1 25:-1 26:-1 27:-1 28:-1 29:-1 30:1 31:-1 32:-1 33:0.506839515261201 34:-1 35:-1 36:-1 37:0.0529115692248547 38:-1 39:-1 40:-1 41:-1 42:1 43:-1 44:0.506839515261201 45:1 46:1 47:-1 48:0.86210295899139 49:-1
